upper_sorbian 0.18401854 -0.155683 -0.18635431 0.1794279 -0.17347538 0.20448977 0.033536196 -0.10191718 -0.14728212 0.1736594 -0.11698751 -0.047890436 0.046038933 -0.1456943 -0.06951222 -0.056242198 0.040881693 -0.13072892 0.12475155 -0.0948621 0.17313671 -0.0050838343 0.18025663 0.10592889 0.23856969 -0.050584264 0.16756444 0.07566056 -0.20351541 0.020616893 -0.24236742 0.06778474 0.006056279 0.19995506 -0.14500009 -0.017366081 -0.13568194 0.023825493 0.17763515 0.1491687 -0.10546395 0.09457141 0.027666902 -0.039328 0.0017453219 -0.06927725 0.21026787 -0.20147328 0.19539396 -0.18664345 0.21629472 0.12186663 -0.1235608 0.04202268 0.04093438 -0.13598804 -0.18458612 -0.009296197 0.028242733 0.1328134 0.22179298 0.0083972495 0.17215787 -0.2357622 -0.13493979 0.188402 0.06229845 0.05718857 -0.06962012 0.035556473 0.11877525 -0.18174647 -0.024803465 0.20215711 0.13993649 0.16856705 0.1445859 0.02616012 0.1860331 0.038932387 -0.10827895 -0.046896886 -0.14185293 0.034834992 -0.09410607 -0.07084255 -0.19922063 0.1325351 0.04106369 -0.2159561 -0.22774456 -0.18793015 -0.09191923 -0.19080088 -0.048368167 -0.01079353 -0.037502456 0.12948449 -0.09133364 -0.09544363 -0.12824397 -0.21370104 0.017381925 -0.20844103 -0.1556384 -0.28434935 0.09918196 -0.04970965 -0.0008841367 -0.010444098 0.15565358 0.08576745 0.063190214 -0.013028164 0.21062414 -0.0680229 -0.026367256 -0.10941538 -0.09146918 -0.003777415 0.174775 -0.118914455 0.17378466 -0.16157064 0.17156686 -0.12922272 -0.006951563 0.13000701
old_church_slavic -0.08881332 0.038156476 0.03807719 0.010840756 -0.014498657 -0.15981905 0.20133701 0.089179866 0.21520042 0.106809445 -0.043583956 0.08503744 -0.03969548 -0.0050008893 -0.0965376 0.048302975 0.07721212 0.17992176 -0.023804761 0.006211532 -0.19043143 -0.080058575 -0.0112889325 -0.06270505 -0.08119227 -0.016925888 0.0801988 0.0998994 -0.052011676 0.02863679 0.026690185 0.08458215 0.021216659 -0.054346945 0.09649916 0.1388754 -0.13585454 0.09100442 0.035785433 0.08609382 -0.14907975 0.06898823 0.09468028 -0.06167669 -0.030778313 -0.019461347 -0.08584152 0.037323948 0.053539842 0.14827313 0.06375519 0.0069738305 0.037914593 -0.11579109 -0.21982686 0.1603688 -0.07197129 0.1812774 -0.10233467 -0.10975296 -0.14133812 -0.10239169 0.13222839 0.14393702 0.044872947 -0.0034835793 -0.16916126 -0.054448757 -0.050368894 0.17594773 -0.015248704 0.03836925 -0.08481864 -0.057638753 0.12582341 0.07479243 -0.039171938 -0.016053988 0.073707655 0.08390957 0.07842741 -0.10620518 -0.11457586 0.05736801 -0.03641624 0.035739906 0.15137182 -0.08376083 0.0043196823 0.009236598 -0.10747119 0.099819645 -0.16775502 -0.0595983 -0.12186451 0.055363636 0.18327421 -0.16567187 0.14453109 0.007457627 -0.046988614 -0.054892212 0.18695743 0.18039952 -0.12298743 -0.090053976 0.085970685 -0.029143378 0.06273467 0.0008169908 0.096671246 -0.11773523 0.14942603 0.20007251 0.19236457 -0.14788193 -0.13753574 0.050426982 0.038519736 0.11612872 -0.08432134 -0.051187966 0.042075936 -0.14399128 -0.08325675 -0.015894974 -0.03230836 0.011069746
bcs -0.024408633 -0.081410185 0.07475838 0.045658093 0.016811304 -0.096878745 0.0915769 -0.07303008 -0.0015323651 -0.09500547 -0.030312376 0.08471284 0.0237423 -0.02349132 0.05153573 0.18576169 -0.053078745 -0.01637029 -0.077181615 0.040851425 -0.095544815 0.021506619 0.07536478 -0.0772579 0.026865281 0.08855144 0.1432771 -0.019618863 0.071606636 -0.12848276 -0.1071561 -0.060318403 -0.11088461 -0.115769126 0.042631626 0.11738207 -0.16846637 0.19241889 -0.037967492 0.102702886 0.010173488 -0.11884817 0.19323038 -0.092004955 0.19611876 0.14504847 -0.16665953 -0.09802879 -0.06016729 -0.071833216 0.047879755 -0.06478646 -0.03908605 -0.0056548743 -0.18339711 -0.028050145 -0.021931734 0.084696 -0.07572433 0.16831507 0.16591613 0.1781529 0.063310646 0.00377008 -0.053912576 -0.1213388 0.10455056 -0.020833123 -0.16566293 0.16304281 0.073501706 0.07943519 -0.014380743 -0.11038374 -0.14029714 -0.10151854 0.14280714 0.11258643 0.13176042 -0.064229324 -0.057597503 -0.09940386 -0.02640229 0.051037706 0.02023969 0.08676326 -0.10531096 0.10250848 0.056986768 -0.06329407 0.10563278 0.07841496 0.11522163 0.13839057 0.018164553 -0.13102059 0.19592075 -0.016229691 -0.15200903 -0.017307002 0.022392582 0.15383358 -0.094832316 0.06241354 0.05617012 -0.10572294 0.09667847 0.105913684 0.10600477 -0.09760006 -0.010039794 -0.10178222 0.058241792 0.044319727 -0.16491333 0.13417496 -0.113299794 -0.018298823 -0.13097546 -0.12295142 0.0026595753 0.11999579 0.037046522 0.09778922 0.015670534 0.025255563 0.0053243577 -0.10710223
church_slavic 0.21694554 0.15950666 0.021545263 0.17941222 -0.10260928 -0.21363975 0.08480583 0.09032556 0.23600614 0.19594312 -0.144491 0.17324857 -0.02750492 0.16731976 0.008042801 -0.07544207 -0.17055091 0.07871808 0.16687693 -0.11770443 -0.22000964 -0.038924836 0.013558219 -0.060685594 0.19272093 0.10461579 0.099460885 -0.015276079 -0.004253259 -0.04458762 -0.06299713 -0.06448041 0.16239482 0.13818921 -0.08632345 0.12668619 -0.17851946 -0.111680955 -0.0056707617 0.1817625 -0.09942478 0.20732401 0.12411513 -0.12183802 -0.13397786 -0.00038478916 -0.18552376 -0.1312589 -0.14419423 0.13789582 -0.22233452 0.031009153 0.03477271 -0.043245625 0.07870178 -0.16889103 0.0050058495 -0.13551445 -0.18869354 0.09060107 0.0009477701 0.12154773 0.108438686 0.1266073 0.14652021 0.07267087 0.13134594 -0.07797346 -0.19810164 0.091836266 -0.1640724 0.15038458 -0.22481702 0.16968015 -0.09685307 0.049841434 0.09633505 0.09065554 0.13754338 -0.1596395 0.18281682 0.16507488 -0.007642683 0.022514256 0.07781231 -0.0118281795 0.032854293 -0.056397468 -0.0967991 0.08450964 -0.16077451 0.2043212 0.07085286 -0.08782643 0.067480296 -0.16492784 -0.13749564 0.1012824 0.053839646 0.06773656 0.09573029 -0.09408769 -0.09023665 0.1564736 -0.029836796 0.045217194 0.18278591 -0.021900682 -6.731059e-05 0.055362146 0.22402379 -0.22955947 -0.10784038 -0.057422977 0.15447839 -0.1333751 -0.16690297 0.09122005 0.19209306 -0.054923464 0.11914736 0.14566286 -0.13066015 0.18032545 -0.21083368 0.043220934 -0.06535932 0.15925959
ukrainian -0.005228732 -0.04210973 0.06226701 -0.09063583 0.19522291 -0.049305793 0.022923121 -0.058471993 -0.018121717 0.1376516 -0.03633461 -0.09554035 0.06626643 -0.116186105 0.10906588 -0.02393934 0.15255435 -0.09487655 0.051183812 -0.06833739 -0.13544945 -0.10038615 0.058972444 0.019154808 0.1632673 -0.16089095 -0.046623826 -0.1062497 0.021537343 -0.24723603 0.12623484 0.12516358 0.015549661 0.115044914 0.11281612 -0.0179739 0.08727133 0.1330097 0.05808059 0.14693989 -0.011656644 0.09273154 -0.15517616 0.20059893 -0.16963343 -0.043649316 -0.03086959 0.28654233 0.002350928 -0.035429157 -0.23624644 0.13479406 -0.098579094 0.17700866 -0.26819348 -0.18820731 0.16169731 -0.12318288 -0.14648534 0.13644798 0.044821404 0.21235658 -0.1808553 -0.14745456 -0.07119565 0.08118847 0.038940694 0.11332338 0.056208603 0.15469219 -0.1378521 -0.08663784 0.067593165 -0.034801453 -0.10240492 -0.112981476 -0.059420284 -0.08188952 0.14962327 0.041072603 0.16022736 0.04525414 -0.031873293 -0.08495136 -0.0101428805 0.19923408 -0.09727001 -0.08067714 -0.0868959 -0.1405472 -0.084670305 0.038776767 -0.11833922 0.19703338 -0.13812473 -0.15076941 -0.12218963 0.22605355 -0.16384298 -0.10393498 0.14084338 -0.13534851 -0.13145071 0.10805964 0.07708368 -0.13983302 0.21684164 0.0101635605 0.04583048 0.16003513 -0.22620389 -0.201208 0.16090551 0.18965176 -0.15861014 0.067863695 -0.065027736 0.052691594 0.15850087 0.10816841 0.17467499 0.009488198 0.14760014 -0.18507609 -0.0021341776 0.02089199 0.13461684 0.21706381
lower_sorbian -0.010870515 0.07974529 -0.1379777 -0.16767074 0.035537668 0.2773189 -0.20343517 0.15422764 -0.21490107 0.008570321 0.009722098 -0.06451262 0.121165045 -0.10047847 -0.15538678 0.17980309 -0.011308245 -0.04534525 -0.12574895 -0.17291288 -0.1745465 -0.0991317 -0.106514044 0.23512876 0.20711723 -0.1601436 -0.08246138 0.19402541 0.0010145828 -0.09870395 -0.20576435 0.183139 0.041427474 0.1073766 0.21967235 0.18353099 -0.048440598 0.20661695 0.20971452 -0.14883462 0.06486665 -0.044783235 0.091456845 -0.00021011184 -0.021365495 -0.014823901 0.16056347 0.03654706 0.0681039 -0.26862225 0.19712672 0.13835727 0.11847539 -0.12016007 0.15916415 0.0092990855 0.09544876 -0.057542954 -0.15383655 0.08322456 -0.13850126 0.18969274 0.026429899 0.1757355 0.14577746 -0.035471965 -0.0338963 -0.10955582 0.0709584 -0.27992266 0.059691895 -0.056793552 0.05861875 -0.006485499 0.20814219 0.17234963 -0.17924474 -0.13397509 -0.033754244 0.04740861 -0.19869669 0.072196975 -0.03691486 -0.05950071 -0.023449766 0.11117562 0.060242884 0.19953404 0.040855072 -0.075342186 -0.23871478 0.022831902 -0.0883303 -0.094532534 0.14440216 -0.1280169 0.20818071 0.17558707 0.08136892 -0.06399463 -0.06739613 0.20014721 -0.14183053 0.023341373 0.172024 -0.26835823 -0.11510912 -0.11307315 -0.038757537 -0.10544173 0.27343526 -0.13598615 0.17778258 0.16834946 0.023169938 0.11569785 0.05309261 -0.034821566 0.17170428 -0.1693389 -0.03367378 0.033201266 -0.073334344 0.05586111 0.14551213 -0.10666859 0.057584748 0.22758299
belarusian 0.13366354 -0.03321361 0.113349445 0.14712314 0.23972625 -0.20237245 -0.025890555 0.0665493 -0.06488017 0.122987814 0.13023722 -0.116758086 0.16214238 0.22939529 -0.13706695 0.25319937 -0.10359934 -0.07813656 0.24470706 -0.10783301 0.16052397 0.1487986 0.011661619 0.07760247 -0.14900497 0.08023928 0.19620976 0.010418612 0.13316262 -0.27808037 0.17756186 -0.2087636 0.22955745 -0.14826374 -0.14604989 0.2255131 0.22586915 -0.07268308 -0.12389943 -0.12169058 -0.044091344 -0.109186344 0.2327835 -0.04124107 0.07128526 -0.002205352 -0.12022077 0.03243854 0.13499954 -0.29312178 0.12403444 -0.21737231 0.16731958 0.27071247 -0.017460974 -0.089598924 0.012028601 -0.1531834 -0.046760194 0.06418475 -0.12809995 0.280765 -0.12060973 0.08470997 -0.1474488 -0.13778187 0.21886209 0.3082513 -0.042880576 0.026231416 -0.037171323 -0.25698856 -0.12576075 -0.22635168 0.18599252 -0.24135566 -0.09815493 0.048519567 0.16408697 0.132035 0.14960365 0.1330278 -0.16364762 0.24705964 0.038947478 0.018822081 -0.14700988 0.1582658 0.17371672 0.08120035 -0.05264221 -0.10670942 -0.08807529 0.15349731 -0.03407018 0.16977292 0.048713036 -0.16558126 -0.07838297 -0.018105708 0.114832155 -0.24473695 -0.013963469 -0.30104986 -0.12614723 -0.1811938 0.04062065 0.13703138 0.12996076 -0.17421786 0.21416213 0.21967278 0.08994423 0.102751166 -0.12128277 0.18163235 -0.060963016 -0.10696456 0.11636406 -0.06740733 0.15153049 -0.028396633 -0.17536506 0.11553161 -0.06195001 -0.018056616 0.041045852 0.105130665
slovene 0.0681443 0.14470325 -0.059639 0.10288348 0.021053888 0.08129188 -0.025164625 -0.119639106 0.19879816 -0.06559722 0.08233047 0.022116613 -0.07519196 0.11390949 -0.09287884 0.20215654 0.16086097 0.045317598 0.08624665 0.028224854 -0.011102634 -0.15305573 -0.06049998 0.17597763 -0.009414009 0.012615773 -0.027269838 -0.08483623 -0.057064068 0.120288104 0.043905973 -0.16901115 0.016794888 0.045305032 -0.041895293 -0.07330799 0.09130209 0.045045808 -0.10167032 0.16524664 -0.06382701 0.07643676 0.034943327 -0.106655695 0.09636605 -0.16285697 -0.0326414 -0.009556247 -0.11802802 0.11345177 0.17228566 0.064580984 0.015975377 0.014002509 0.03810392 0.004296207 0.1755903 0.126406 0.108506605 0.14028537 -0.024921563 0.119974084 0.081633575 0.014789885 -0.011387402 0.02925171 -0.13069798 -0.13483399 -0.024209293 0.13654907 0.10934129 -0.058194384 -0.034489285 0.04839607 -0.05329682 0.025498329 0.051676553 0.10268988 -0.082677364 -0.07155282 0.02783819 0.016732695 0.027552882 -0.12585315 0.040647734 -0.0054824003 0.15309957 -0.029841062 -0.061797626 -0.09038626 0.062269177 0.1782598 0.046918135 -0.04125035 -0.05425634 -0.19715458 -0.12219706 0.020283867 -0.1747152 -0.0741112 0.11560897 -0.17676283 0.042693805 -0.09490228 0.11005299 -0.061985433 -0.10596517 0.12115724 -0.11198782 -0.12295988 -0.17766891 -0.060464773 0.042844817 -0.086668976 -0.017421106 -0.0025078927 0.009157264 -0.13069592 0.09364193 0.050872803 0.048440993 -0.035443127 0.014264655 -0.028459517 0.12369238 -0.01996171 -0.069955185 -0.10272583
russian 0.01712889 -0.013710838 0.10529143 -0.14346942 0.07774344 -0.018197706 -0.042882442 0.045353845 0.032270797 -0.041644417 -0.056299824 -0.020021807 0.11634722 0.11217884 -0.016369296 0.065467805 -0.010888785 0.0809935 0.12279787 -0.032440826 0.17392144 -0.11476519 0.084028706 0.13705449 0.0701564 0.029964337 0.1406303 0.09329016 0.024473805 0.029812075 -0.07360395 -0.010757488 0.12137261 -0.024567734 0.07160452 0.007977422 0.020312205 0.16685526 -0.03148306 -0.0044575427 -0.012222833 -0.03877524 -0.1084892 0.07036743 -0.08591245 -0.023541274 -0.13879238 0.08283209 0.012684147 -0.008086405 -0.11433219 -0.025122179 -0.1294295 0.06812713 0.13288999 -0.1209757 -0.08101563 -0.03441529 -0.1223945 0.1625387 -0.030394845 0.052849367 0.025332976 0.039316177 -0.06764025 -0.089082725 -0.064573154 0.14161304 -0.14436957 0.12065174 -0.113338776 0.17054886 0.07693887 -0.10374351 0.114112064 0.098488 0.091202356 -0.14880179 -0.11801547 0.0737475 0.14496402 -0.06317551 0.11497596 0.02156128 0.043127775 0.028509656 -0.16313744 -0.14825004 0.096240856 0.075746626 -0.109018125 0.12626114 0.03532621 -0.003464581 0.07645291 0.07998946 0.051434934 -0.116017714 -0.06373923 -0.10011615 -0.12323823 -0.0460319 -0.11293996 -0.079556234 0.0671162 -0.059854653 -0.013806278 -0.019352725 0.026457008 -0.042474676 0.11027374 -0.028194303 0.1598265 0.10702789 0.12568225 -0.032281574 -0.015873589 0.04593124 0.12938793 0.028932232 -0.064756654 -0.061775617 -0.13148634 -0.11945809 -0.06917021 0.026064591 0.044135243 0.15131256
bulgarian -0.13291611 0.044002 0.09400396 0.1256735 -0.047715414 -0.021649364 -0.1175061 -0.09405847 0.0010901078 0.109061636 -0.056292895 -0.11804797 0.09303458 0.06642214 -0.059592094 0.13097712 0.1045604 -0.00046857502 0.09847329 0.03675841 -0.17120937 0.14655071 -0.0006076538 -0.022821626 -0.059280258 -0.00041205165 0.07778795 0.11852027 0.0011267113 0.040470492 0.11060827 -0.1450514 -0.057284243 0.08655468 -0.07958987 0.0275668 0.18861258 -0.1351971 0.035657 -0.11329712 -0.06353258 -0.10675682 0.113642134 -0.1326575 0.120438665 -0.11698555 -0.057481736 -0.0620835 0.07836893 0.16025338 0.06923051 0.0972044 -0.11435834 0.067689665 -0.14437635 0.0031785571 0.09768486 0.015017031 0.028583888 0.15283076 0.009683546 0.15110144 0.10683385 -0.06259791 0.15798736 -0.052544303 0.115101844 0.19737509 -0.07694237 -0.0316096 -0.17779326 -0.16944496 -0.031889122 0.023160096 0.12817729 -0.14689806 0.12055272 -0.09431982 -0.06768155 -0.1007061 -0.13163681 -0.17848858 0.05318532 -0.033284217 0.03802108 0.03566364 -0.08750939 -0.09539457 -0.049688306 -0.11447473 -0.041855726 -0.013436572 -0.117828906 0.007167273 -0.067265406 0.11170568 -0.13583753 0.12358442 -0.15878429 0.061393365 -0.10512892 0.17833126 0.11057858 0.1337187 0.0058036307 0.13418207 -0.13858528 0.10944397 -0.0749759 -0.062452447 0.07559492 0.006652669 -0.11807469 0.10499728 0.11268812 -0.12249928 -0.09841865 -0.01081204 0.0060004415 0.04449045 -0.14300942 -0.12016835 0.13705443 -0.1323704 -0.13217431 0.010330146 -0.031099107 0.1015979
czech -0.18194766 -0.018619914 -0.1206121 -0.055453267 0.06767122 -0.08323531 0.044277433 0.07635214 0.17694107 -0.01881051 -0.07789999 0.07610165 0.033306427 -0.065290056 0.004815087 -0.08776853 0.11519632 -0.09403254 -0.046964318 0.0059235524 -0.14813514 0.00052251574 -0.040407877 0.15387377 0.07668701 -0.089215375 0.13787547 0.033820797 0.05559387 0.15724385 -0.114142396 0.009801952 -0.08326016 -0.093791865 -0.13033935 -0.10931511 -0.03194901 -0.0039788233 -0.029858477 0.1124675 -0.0065924507 -0.09207516 -0.030656256 0.0993679 0.048442192 -0.100152045 -0.12135756 0.07856571 0.13378489 -0.08446653 -0.04118848 0.070237234 0.16713952 -0.08624125 -0.09453195 -0.15475985 0.076995954 -0.10778265 -0.03338896 0.10431555 -0.01450895 -0.08022685 -0.020618428 0.006288993 -0.16004422 0.0732603 0.019301036 -0.079076864 -0.015839318 0.00021692553 0.08100745 0.02724479 -0.0345633 -0.055900525 0.0028587473 -0.14534889 0.017017607 -0.124005325 0.0791681 0.08298256 0.09034319 -0.081917986 0.036548432 -0.11641224 0.06366087 -0.06609371 -0.14570305 0.10226167 -0.11864061 0.02920749 -0.15377031 -0.0765763 0.00054187793 0.03951305 0.11459816 -0.17148237 0.15139556 0.028898306 -0.0007577638 0.059287105 -0.07753314 -0.031806983 -0.04677244 -0.05142001 -0.18838686 0.16670103 -0.074534185 0.1435495 -0.03269279 0.14980434 -0.047650445 0.075564064 0.11642567 -0.025953626 0.074250214 -0.12929882 -0.0058850106 0.0009796378 -0.14295188 0.066040374 -0.10329059 0.022797002 -0.09429593 -0.0037140404 0.065629095 0.033246037 0.038930196 -0.024633657
slovak 0.031960502 0.08546966 -0.09183464 -0.016528055 -0.055736806 0.13136378 0.08153912 0.041028626 -0.018084051 -6.0999464e-05 -0.029316805 -0.0007713675 0.04539518 -0.05975393 0.10305216 0.039644748 -0.09457415 0.02090422 -0.122444 0.07567762 0.031651698 -0.13373506 -0.037734468 0.06426755 -0.044329956 0.10082838 -0.052798767 -0.14596036 0.11218333 0.013650865 0.042053595 -0.12597507 0.05723164 0.14073507 -0.15744247 0.07188976 0.07565171 0.15975967 -0.013269755 -0.035947062 -0.00058277964 -0.13974518 0.18260366 0.038226917 0.17614996 0.0014538631 -0.16585286 0.07594258 -0.059701655 -0.105497986 -0.020784594 -0.12883867 0.18840246 -0.008941324 -0.008129376 -0.20047094 0.08904229 0.07549675 -0.105916895 0.083844975 -0.1273504 -0.06362636 0.10454139 -0.105200134 -0.12315353 0.016096866 0.0061901934 -0.00061837595 0.04357183 -0.07707258 -0.15640667 -0.16088216 0.004128431 0.010946729 -0.03935233 0.117082834 0.014400873 0.036371514 -0.11000063 0.055886917 0.041728202 0.14050363 -0.032600097 -0.07693395 0.009815148 -0.015529958 0.040126037 0.13796814 0.019038597 8.251571e-05 -0.042215265 0.15644345 0.12152773 0.14274555 0.10691581 0.16280235 0.16752401 0.13202327 0.017289052 0.055185117 0.007934018 0.10763484 -0.012759916 0.14563572 -0.0040283855 0.08753542 0.1420122 -0.102091275 0.062967956 0.16336477 -0.030755777 -0.14972697 0.08338992 -0.019597692 0.16142713 0.11300217 -0.088766865 0.051920515 -0.10642158 0.16251186 0.03167443 0.02604339 0.09036485 0.10609416 -0.033168387 -0.06827397 0.06443179 0.091755904
polish -0.026148984 -0.0041396758 -0.10827722 -0.0277001 -0.037259426 -0.08724313 -0.12611046 0.0042487285 -0.121768326 0.15221001 -0.09615854 0.10959001 -0.091192044 -0.024114253 0.07453929 -0.12461815 -0.05139845 0.06720838 0.09795892 -0.009592262 -0.013393372 0.037082627 -0.044745363 0.12230996 0.13388814 -0.063664414 0.16782647 0.09725999 -0.03004574 0.008898788 0.08725745 -0.18255371 -0.043981552 -0.010502629 0.059571628 0.17381111 0.03692278 -0.0066321073 -0.040780317 -0.042694807 0.016622907 0.06314999 -0.063126564 0.034361884 0.15630183 0.08962354 -0.14157218 -0.09538955 -0.026079558 -0.121577114 -0.044713955 -0.10213486 -0.10635347 0.10853979 0.050399747 0.1112255 0.013751687 0.11194195 -0.17748696 0.053217594 -0.038703293 -0.06982348 -0.14478189 -0.054798502 -0.021239856 0.031055031 -0.1261177 -0.15729748 0.039794896 -0.17640986 0.0026199233 -0.14230898 -0.05741035 -0.114467405 -0.054150928 -0.017604524 -0.1198601 -0.17185853 0.059544597 -0.008054761 -0.1479459 -0.013298091 -0.049380645 0.064026356 -0.0033804304 -0.06605825 -0.002753557 -0.10343404 0.024147741 -0.004738481 -0.0864448 0.0513142 0.14349547 -0.037199996 -0.0030466504 0.017961998 -0.02705881 -0.043439012 -0.07000358 -0.052538116 -0.0799899 -0.0071834964 0.014479764 -0.16562054 0.022697922 0.013891249 0.020989582 0.16159578 0.016319418 -0.12894009 -0.054757 -0.17131966 -0.005583924 -0.09828041 0.10376268 0.020500503 -0.053314216 -0.022675343 0.13244307 -0.031798027 0.02419971 -0.108404785 0.0925783 -0.13211876 0.01859328 -0.07342827 0.07022415 -0.112931624
